digraph Tree {
node [shape=box, style="filled, rounded", color="black", fontname=helvetica] ;
edge [fontname=helvetica] ;
0 [label=<Col_A &le; 0.5<br/>gini = 0.656<br/>samples = 8<br/>value = [1, 1, 2, 4]<br/>class = Y4>, fillcolor="#d739e555"] ;
1 [label=<Col_B &le; 0.5<br/>gini = 0.625<br/>samples = 4<br/>value = [1, 1, 2, 0]<br/>class = Y3>, fillcolor="#399de555"] ;
0 -> 1 [labeldistance=2.5, labelangle=45, headlabel="True"] ;
2 [label=<Col_C &le; 0.5<br/>gini = 0.5<br/>samples = 2<br/>value = [1, 1, 0, 0]<br/>class = Y1>, fillcolor="#e5813900"] ;
1 -> 2 ;
3 [label=<gini = 0.0<br/>samples = 1<br/>value = [1, 0, 0, 0]<br/>class = Y1>, fillcolor="#e58139ff"] ;
2 -> 3 ;
4 [label=<gini = 0.0<br/>samples = 1<br/>value = [0, 1, 0, 0]<br/>class = Y2>, fillcolor="#47e539ff"] ;
2 -> 4 ;
5 [label=<gini = 0.0<br/>samples = 2<br/>value = [0, 0, 2, 0]<br/>class = Y3>, fillcolor="#399de5ff"] ;
1 -> 5 ;
6 [label=<gini = 0.0<br/>samples = 4<br/>value = [0, 0, 0, 4]<br/>class = Y4>, fillcolor="#d739e5ff"] ;
0 -> 6 [labeldistance=2.5, labelangle=-45, headlabel="False"] ;
}